{
  "ip": 0,
  "fr": 60,
  "v": "5.1.20",
  "assets": [],
  "layers": [
    {
      "ty": 4,
      "nm": "Frame 1",
      "ip": 0,
      "st": 0,
      "ind": 2,
      "hix": 1,
      "ks": {
        "o": { "a": 0, "k": 100 },
        "or": { "a": 0, "k": [0, 0, 0] },
        "a": { "a": 0, "k": [250, 125, 0] },
        "p": {
          "s": true,
          "x": { "a": 0, "k": 251.18300000000005 },
          "y": {
            "a": 1,
            "k": [
              {
                "t": 0,
                "s": [160.217],
                "e": [127.142],
                "i": { "x": [0.515], "y": [0.955] },
                "o": { "x": [0.455], "y": [0.03] }
              },
              {
                "t": 120,
                "s": [127.142],
                "e": [152.142],
                "i": { "x": [0.515], "y": [0.955] },
                "o": { "x": [0.455], "y": [0.03] }
              },
              {
                "t": 203,
                "s": [152.142],
                "e": [122.142],
                "i": { "x": [0.515], "y": [0.955] },
                "o": { "x": [0.455], "y": [0.03] }
              },
              {
                "t": 287,
                "s": [122.142],
                "e": [160.217],
                "i": { "x": [0.515], "y": [0.955] },
                "o": { "x": [0.455], "y": [0.03] }
              },
              { "t": 367 }
            ]
          }
        },
        "rx": { "a": 0, "k": 0 },
        "ry": { "a": 0, "k": 0 },
        "rz": { "a": 0, "k": 0 },
        "s": { "a": 0, "k": [100, 100, 100] }
      },
      "shapes": [
        {
          "ty": "gr",
          "nm": "Frame 1 shape group",
          "it": [
            {
              "ty": "sh",
              "ks": {
                "a": 0,
                "k": {
                  "c": true,
                  "v": [
                    [244.282, 37.2174],
                    [177.493, 119.957],
                    [244.282, 202.972],
                    [312.735, 119.957]
                  ],
                  "i": [
                    [38.87699999999998, 0],
                    [0, -57.91779999999999],
                    [-38.876000000000005, 0],
                    [0, 63.985000000000014]
                  ],
                  "o": [
                    [-38.876000000000005, 0],
                    [0, 65.64000000000001],
                    [38.87699999999998, 0],
                    [0, -68.3981]
                  ]
                }
              }
            },
            {
              "ty": "sh",
              "ks": {
                "a": 0,
                "k": {
                  "c": true,
                  "v": [
                    [244.538, 181.184],
                    [203.543, 119.999],
                    [245.114, 58.7296],
                    [286.684, 119.999],
                    [244.538, 181.184]
                  ],
                  "i": [
                    [0, 0],
                    [0, 45.464],
                    [-26.926999999999992, 0],
                    [0, -47.37379999999999],
                    [26.926999999999964, 0]
                  ],
                  "o": [
                    [-26.92700000000002, 0],
                    [0, -40.11489999999999],
                    [26.926999999999992, 0],
                    [0, 44.31800000000001],
                    [0, 0]
                  ]
                }
              }
            },
            {
              "ty": "st",
              "o": { "a": 0, "k": 100 },
              "c": { "a": 0, "k": [0, 0, 0, 1] },
              "lc": 3,
              "lj": 1,
              "ml": 10,
              "w": { "a": 0, "k": 1 }
            },
            {
              "ty": "fl",
              "o": { "a": 0, "k": 0 },
              "c": { "a": 0, "k": [0, 0, 0, 1] },
              "r": 1
            },
            {
              "ty": "tr",
              "o": { "a": 0, "k": 100 },
              "a": { "a": 0, "k": [0, 0] },
              "s": { "a": 0, "k": [100, 100] },
              "p": { "a": 0, "k": [0, 0] },
              "r": { "a": 0, "k": 0 }
            }
          ]
        },
        {
          "ty": "gr",
          "nm": "Frame 1 shape group",
          "it": [
            {
              "ty": "sh",
              "ks": {
                "a": 0,
                "k": {
                  "c": true,
                  "v": [
                    [235.414, 42.1819],
                    [168.624, 124.921],
                    [235.414, 207.936],
                    [303.866, 124.921]
                  ],
                  "i": [
                    [38.87600000000003, 0],
                    [0, -57.91730000000001],
                    [-38.87699999999998, 0],
                    [0, 63.985]
                  ],
                  "o": [
                    [-38.87699999999998, 0],
                    [0, 65.64],
                    [38.87600000000003, 0],
                    [0, -68.39760000000001]
                  ]
                }
              }
            },
            {
              "ty": "sh",
              "ks": {
                "a": 0,
                "k": {
                  "c": true,
                  "v": [
                    [235.669, 186.148],
                    [194.675, 124.964],
                    [236.245, 63.6941],
                    [277.816, 124.964]
                  ],
                  "i": [
                    [26.926999999999992, 0],
                    [0, 45.462999999999994],
                    [-26.926999999999992, 0],
                    [0, -47.374300000000005]
                  ],
                  "o": [
                    [-26.92700000000002, 0],
                    [0, -40.115399999999994],
                    [26.92700000000002, 0],
                    [0, 44.31700000000001]
                  ]
                }
              }
            },
            {
              "ty": "st",
              "o": { "a": 0, "k": 0 },
              "w": { "a": 0, "k": 0 },
              "c": { "a": 0, "k": [0, 0, 0, 1] },
              "lc": 3,
              "lj": 1,
              "ml": 1
            },
            {
              "ty": "fl",
              "o": { "a": 0, "k": 100 },
              "r": 1,
              "c": { "a": 0, "k": [0.32, 0.32, 0.32, 1] }
            },
            {
              "ty": "tr",
              "o": { "a": 0, "k": 100 },
              "a": { "a": 0, "k": [0, 0] },
              "s": { "a": 0, "k": [100, 100] },
              "p": { "a": 0, "k": [0, 0] },
              "r": { "a": 0, "k": 0 }
            }
          ]
        }
      ],
      "op": 367
    },
    {
      "ty": 4,
      "nm": "Frame 2",
      "ip": 0,
      "st": 0,
      "ind": 1,
      "hix": 2,
      "ks": {
        "o": { "a": 0, "k": 100 },
        "or": { "a": 0, "k": [0, 0, 0] },
        "a": { "a": 0, "k": [250, 125, 0] },
        "p": {
          "s": true,
          "x": { "a": 0, "k": 250 },
          "y": { "a": 0, "k": 125 }
        },
        "rx": { "a": 0, "k": 0 },
        "ry": { "a": 0, "k": 0 },
        "rz": { "a": 0, "k": 0 },
        "s": { "a": 0, "k": [100, 100, 100] }
      },
      "shapes": [
        {
          "ty": "gr",
          "nm": "Frame 2 shape group",
          "it": [
            {
              "ty": "sh",
              "ks": {
                "a": 0,
                "k": {
                  "c": true,
                  "v": [
                    [451.303, 176.638],
                    [435.229, 176.638],
                    [435.229, 129.533],
                    [432.452, 122.862],
                    [425.749, 120.099],
                    [421.983, 120.099],
                    [418.355, 120.817],
                    [415.28, 122.862],
                    [413.225, 125.923],
                    [412.504, 129.533],
                    [412.504, 176.638],
                    [367.165, 176.638],
                    [364.503, 175.941],
                    [362.53, 174.032],
                    [361.755, 171.404],
                    [362.38, 168.737],
                    [410.366, 78.3524],
                    [411.432, 74.7196],
                    [410.978, 70.9621],
                    [409.076, 67.6848],
                    [406.032, 65.4152],
                    [403.2, 64.084],
                    [396.176, 63.6576],
                    [390.792, 68.1669],
                    [332.267, 177.121],
                    [330.749, 183.152],
                    [334.513, 192.197],
                    [343.602, 195.944],
                    [412.504, 195.944],
                    [412.504, 225.73],
                    [415.832, 233.726],
                    [423.866, 237.038],
                    [423.866, 237.038],
                    [431.901, 233.726],
                    [435.229, 225.73],
                    [435.229, 195.944],
                    [451.303, 195.944],
                    [455.014, 195.209],
                    [458.161, 193.116],
                    [460.264, 189.985],
                    [461.002, 186.291],
                    [461.002, 186.291],
                    [458.161, 179.465],
                    [451.303, 176.638]
                  ],
                  "i": [
                    [0, 0],
                    [0, 0],
                    [0, 0],
                    [1.77800000000002, 1.7700000000000102],
                    [2.513999999999953, 0],
                    [0, 0],
                    [1.1499999999999773, -0.47399999999998954],
                    [0.8800000000000523, -0.8759999999999906],
                    [0.47699999999997544, -1.144999999999996],
                    [0, -1.238999999999976],
                    [0, 0],
                    [0, 0],
                    [0.8120000000000118, 0.45699999999999363],
                    [0.4810000000000514, 0.7949999999999875],
                    [0.02600000000001046, 0.9279999999999973],
                    [-0.4359999999999786, 0.8199999999999932],
                    [0, 0],
                    [-0.10500000000001819, 1.2700999999999993],
                    [0.4049999999999727, 1.2090999999999923],
                    [0.8499999999999659, 0.953400000000002],
                    [1.1580000000000155, 0.5442000000000036],
                    [0, 0],
                    [2.309000000000026, -0.7600000000000051],
                    [1.1470000000000482, -2.1347999999999985],
                    [0, 0],
                    [0, -2.103999999999985],
                    [-2.409999999999968, -2.399000000000001],
                    [-3.408999999999992, 0],
                    [0, 0],
                    [0, 0],
                    [-2.130999999999972, -2.1210000000000093],
                    [-3.012999999999977, 0],
                    [0, 0],
                    [-2.1310000000000286, 2.1200000000000045],
                    [0, 2.9990000000000236],
                    [0, 0],
                    [0, 0],
                    [-1.1759999999999877, 0.4849999999999852],
                    [-0.8999999999999773, 0.8969999999999914],
                    [-0.4870000000000232, 1.1709999999999923],
                    [0, 1.266999999999996],
                    [0, 0],
                    [1.8190000000000168, 1.8100000000000023],
                    [2.5720000000000027, 0]
                  ],
                  "o": [
                    [0, 0],
                    [0, 0],
                    [0, -2.501999999999981],
                    [-1.7769999999999868, -1.7689999999999912],
                    [0, 0],
                    [-1.2450000000000045, 0],
                    [-1.150000000000034, 0.4750000000000085],
                    [-0.8799999999999955, 0.8760000000000048],
                    [-0.4759999999999991, 1.1439999999999912],
                    [0, 0],
                    [0, 0],
                    [-0.9329999999999927, 0],
                    [-0.8120000000000118, -0.45599999999998886],
                    [-0.4819999999999709, -0.7950000000000159],
                    [-0.02600000000001046, -0.9279999999999973],
                    [0, 0],
                    [0.5980000000000132, -1.126800000000003],
                    [0.10499999999996135, -1.2702000000000027],
                    [-0.40500000000002956, -1.2091000000000065],
                    [-0.8500000000000227, -0.9532999999999987],
                    [0, 0],
                    [-2.1999999999999886, -1.0337000000000032],
                    [-2.3100000000000023, 0.7599999999999909],
                    [0, 0],
                    [-0.9970000000000141, 1.8559999999999945],
                    [0, 3.3920000000000243],
                    [2.4110000000000014, 2.399000000000001],
                    [0, 0],
                    [0, 0],
                    [0, 2.9990000000000236],
                    [2.1310000000000286, 2.1200000000000045],
                    [0, 0],
                    [3.01400000000001, 0],
                    [2.130999999999972, -2.1210000000000093],
                    [0, 0],
                    [0, 0],
                    [1.2730000000000246, 0],
                    [1.176999999999964, -0.48500000000001364],
                    [0.9010000000000105, -0.896000000000015],
                    [0.48699999999996635, -1.1710000000000207],
                    [0, 0],
                    [0, -2.5600000000000023],
                    [-1.8190000000000168, -1.8100000000000023],
                    [0, 0]
                  ]
                }
              }
            },
            {
              "ty": "st",
              "o": { "a": 0, "k": 100 },
              "c": { "a": 0, "k": [0, 0, 0, 1] },
              "lc": 3,
              "lj": 1,
              "ml": 10,
              "w": { "a": 0, "k": 1 }
            },
            {
              "ty": "fl",
              "o": { "a": 0, "k": 0 },
              "c": { "a": 0, "k": [0, 0, 0, 1] },
              "r": 1
            },
            {
              "ty": "tr",
              "o": { "a": 0, "k": 100 },
              "a": { "a": 0, "k": [0, 0] },
              "s": { "a": 0, "k": [100, 100] },
              "p": { "a": 0, "k": [0, 0] },
              "r": { "a": 0, "k": 0 }
            }
          ]
        },
        {
          "ty": "gr",
          "nm": "Frame 2 shape group",
          "it": [
            {
              "ty": "sh",
              "ks": {
                "a": 0,
                "k": {
                  "c": true,
                  "v": [
                    [149.779, 176.638],
                    [133.705, 176.638],
                    [133.705, 129.533],
                    [132.984, 125.923],
                    [130.929, 122.862],
                    [127.854, 120.817],
                    [124.226, 120.099],
                    [120.46, 120.099],
                    [113.757, 122.862],
                    [110.98, 129.533],
                    [110.98, 176.638],
                    [65.6412, 176.638],
                    [62.9795, 175.941],
                    [61.0063, 174.032],
                    [60.2318, 171.404],
                    [60.8565, 168.737],
                    [108.843, 78.3524],
                    [109.909, 74.7196],
                    [109.454, 70.9621],
                    [107.552, 67.6848],
                    [104.509, 65.4152],
                    [101.676, 64.084],
                    [94.6525, 63.6576],
                    [89.2687, 68.1669],
                    [30.7431, 177.121],
                    [29.2251, 183.152],
                    [29.2251, 183.152],
                    [32.9899, 192.197],
                    [42.079, 195.944],
                    [110.98, 195.944],
                    [110.98, 225.73],
                    [111.845, 230.057],
                    [114.308, 233.726],
                    [117.994, 236.177],
                    [122.343, 237.038],
                    [122.343, 237.038],
                    [130.377, 233.726],
                    [133.705, 225.73],
                    [133.705, 195.944],
                    [149.779, 195.944],
                    [153.491, 195.209],
                    [156.638, 193.116],
                    [158.741, 189.985],
                    [159.479, 186.291],
                    [159.479, 186.291],
                    [158.741, 182.597],
                    [156.638, 179.465],
                    [153.491, 177.373],
                    [149.779, 176.638]
                  ],
                  "i": [
                    [0, 0],
                    [0, 0],
                    [0, 0],
                    [0.4759999999999991, 1.1439999999999912],
                    [0.8799999999999955, 0.8760000000000048],
                    [1.1499999999999915, 0.4750000000000085],
                    [1.2450000000000045, 0],
                    [0, 0],
                    [1.777000000000001, -1.7689999999999912],
                    [0, -2.501999999999981],
                    [0, 0],
                    [0, 0],
                    [0.8121000000000009, 0.45699999999999363],
                    [0.4813999999999936, 0.7949999999999875],
                    [0.026200000000002888, 0.9279999999999973],
                    [-0.4358000000000004, 0.8199999999999932],
                    [0, 0],
                    [-0.10500000000000398, 1.2700999999999993],
                    [0.40500000000000114, 1.2090999999999923],
                    [0.8499999999999943, 0.953400000000002],
                    [1.1580000000000013, 0.5442000000000036],
                    [0, 0],
                    [2.3095, -0.7600000000000051],
                    [1.1467000000000098, -2.1347999999999985],
                    [0, 0],
                    [0, -2.103999999999985],
                    [0, 0],
                    [-2.4105999999999987, -2.399000000000001],
                    [-3.4091000000000022, 0],
                    [0, 0],
                    [0, 0],
                    [-0.570999999999998, -1.3719999999999857],
                    [-1.0550000000000068, -1.0500000000000114],
                    [-1.3780000000000001, -0.5679999999999836],
                    [-1.4920000000000044, 0],
                    [0, 0],
                    [-2.1310000000000002, 2.1200000000000045],
                    [0, 2.9990000000000236],
                    [0, 0],
                    [0, 0],
                    [-1.177000000000021, 0.4849999999999852],
                    [-0.9010000000000105, 0.8969999999999914],
                    [-0.48800000000002797, 1.1709999999999923],
                    [0, 1.266999999999996],
                    [0, 0],
                    [0.48699999999999477, 1.1709999999999923],
                    [0.900999999999982, 0.8969999999999914],
                    [1.1769999999999925, 0.48500000000001364],
                    [1.274000000000001, 0]
                  ],
                  "o": [
                    [0, 0],
                    [0, 0],
                    [0, -1.238999999999976],
                    [-0.47700000000000387, -1.144999999999996],
                    [-0.8799999999999955, -0.8759999999999906],
                    [-1.1509999999999962, -0.47399999999998954],
                    [0, 0],
                    [-2.5150000000000006, 0],
                    [-1.7780000000000058, 1.7700000000000102],
                    [0, 0],
                    [0, 0],
                    [-0.932699999999997, 0],
                    [-0.8121000000000009, -0.45599999999998886],
                    [-0.48150000000000404, -0.7950000000000159],
                    [-0.026200000000002888, -0.9279999999999973],
                    [0, 0],
                    [0.597999999999999, -1.126800000000003],
                    [0.10499999999998977, -1.2702000000000027],
                    [-0.4049999999999869, -1.2091000000000065],
                    [-0.8500000000000085, -0.9532999999999987],
                    [0, 0],
                    [-2.199300000000008, -1.0337000000000032],
                    [-2.3095, 0.7599999999999909],
                    [0, 0],
                    [-0.9965999999999973, 1.8559999999999945],
                    [0, 0],
                    [0, 3.3920000000000243],
                    [2.4106000000000023, 2.399000000000001],
                    [0, 0],
                    [0, 0],
                    [0, 1.4850000000000136],
                    [0.570999999999998, 1.372000000000014],
                    [1.0549999999999926, 1.0500000000000114],
                    [1.3790000000000049, 0.568000000000012],
                    [0, 0],
                    [3.012999999999991, 0],
                    [2.1310000000000002, -2.1210000000000093],
                    [0, 0],
                    [0, 0],
                    [1.274000000000001, 0],
                    [1.1769999999999925, -0.48500000000001364],
                    [0.900999999999982, -0.896000000000015],
                    [0.48699999999999477, -1.1710000000000207],
                    [0, 0],
                    [0, -1.2680000000000007],
                    [-0.48800000000002797, -1.1710000000000207],
                    [-0.9010000000000105, -0.896000000000015],
                    [-1.177000000000021, -0.4849999999999852],
                    [0, 0]
                  ]
                }
              }
            },
            {
              "ty": "st",
              "o": { "a": 0, "k": 100 },
              "c": { "a": 0, "k": [0, 0, 0, 1] },
              "lc": 3,
              "lj": 1,
              "ml": 10,
              "w": { "a": 0, "k": 1 }
            },
            {
              "ty": "fl",
              "o": { "a": 0, "k": 0 },
              "c": { "a": 0, "k": [0, 0, 0, 1] },
              "r": 1
            },
            {
              "ty": "tr",
              "o": { "a": 0, "k": 100 },
              "a": { "a": 0, "k": [0, 0] },
              "s": { "a": 0, "k": [100, 100] },
              "p": { "a": 0, "k": [0, 0] },
              "r": { "a": 0, "k": 0 }
            }
          ]
        },
        {
          "ty": "gr",
          "nm": "Frame 2 shape group",
          "it": [
            {
              "ty": "sh",
              "ks": {
                "a": 0,
                "k": {
                  "c": true,
                  "v": [
                    [442.989, 182.154],
                    [426.915, 182.154],
                    [426.915, 135.049],
                    [424.138, 128.378],
                    [417.435, 125.615],
                    [413.669, 125.615],
                    [410.041, 126.333],
                    [406.966, 128.378],
                    [404.911, 131.439],
                    [404.19, 135.049],
                    [404.19, 182.154],
                    [358.851, 182.154],
                    [356.189, 181.457],
                    [354.216, 179.548],
                    [353.441, 176.92],
                    [354.066, 174.253],
                    [402.052, 83.8684],
                    [403.118, 80.2355],
                    [402.664, 76.4781],
                    [400.762, 73.2008],
                    [397.718, 70.9312],
                    [394.886, 69.5999],
                    [387.862, 69.1736],
                    [382.478, 73.683],
                    [323.953, 182.637],
                    [322.435, 188.668],
                    [326.199, 197.713],
                    [335.288, 201.46],
                    [404.19, 201.46],
                    [404.19, 231.246],
                    [407.518, 239.241],
                    [415.552, 242.553],
                    [423.587, 239.241],
                    [426.915, 231.246],
                    [426.915, 201.46],
                    [442.989, 201.46],
                    [449.847, 198.632],
                    [452.688, 191.807],
                    [449.847, 184.981]
                  ],
                  "i": [
                    [2.5720000000000027, 0],
                    [0, 0],
                    [0, 0],
                    [1.77800000000002, 1.7690000000000055],
                    [2.5149999999999864, 0],
                    [0, 0],
                    [1.1510000000000105, -0.47400000000000375],
                    [0.8799999999999955, -0.8759999999999906],
                    [0.47699999999997544, -1.1449999999999818],
                    [0, -1.2390000000000043],
                    [0, 0],
                    [0, 0],
                    [0.811999999999955, 0.45699999999999363],
                    [0.48099999999999454, 0.7949999999999875],
                    [0.02600000000001046, 0.9280000000000257],
                    [-0.4359999999999786, 0.8200000000000216],
                    [0, 0],
                    [-0.10500000000001819, 1.2702000000000027],
                    [0.40500000000002956, 1.2091000000000065],
                    [0.8500000000000227, 0.953400000000002],
                    [1.1589999999999918, 0.5441999999999894],
                    [0, 0],
                    [2.308999999999969, -0.7599999999999909],
                    [1.1469999999999914, -2.134900000000002],
                    [0, 0],
                    [0, -2.1040000000000134],
                    [-2.410000000000025, -2.399000000000001],
                    [-3.408999999999992, 0],
                    [0, 0],
                    [0, 0],
                    [-2.130999999999972, -2.1200000000000045],
                    [-3.0130000000000337, 0],
                    [-2.130999999999972, 2.120999999999981],
                    [0, 2.9989999999999952],
                    [0, 0],
                    [0, 0],
                    [-1.81899999999996, 1.811000000000007],
                    [0, 2.5600000000000023],
                    [1.8190000000000168, 1.8100000000000023]
                  ],
                  "o": [
                    [0, 0],
                    [0, 0],
                    [0, -2.5020000000000095],
                    [-1.7769999999999868, -1.7689999999999912],
                    [0, 0],
                    [-1.2450000000000045, 0],
                    [-1.1499999999999773, 0.47400000000000375],
                    [-0.8799999999999955, 0.8760000000000048],
                    [-0.4759999999999991, 1.1440000000000055],
                    [0, 0],
                    [0, 0],
                    [-0.9329999999999927, 0],
                    [-0.8120000000000118, -0.45599999999998886],
                    [-0.48200000000002774, -0.7950000000000159],
                    [-0.025999999999953616, -0.9279999999999973],
                    [0, 0],
                    [0.5979999999999563, -1.126899999999992],
                    [0.10500000000001819, -1.2700999999999993],
                    [-0.4049999999999727, -1.2090999999999923],
                    [-0.8500000000000227, -0.9532999999999987],
                    [0, 0],
                    [-2.2000000000000455, -1.033600000000007],
                    [-2.3100000000000023, 0.7600000000000051],
                    [0, 0],
                    [-0.9969999999999573, 1.8559999999999945],
                    [0, 3.391999999999996],
                    [2.4110000000000014, 2.399000000000001],
                    [0, 0],
                    [0, 0],
                    [0, 2.9989999999999952],
                    [2.1310000000000286, 2.120999999999981],
                    [3.013999999999953, 0],
                    [2.1310000000000286, -2.1200000000000045],
                    [0, 0],
                    [0, 0],
                    [2.5720000000000027, 0],
                    [1.8190000000000168, -1.8100000000000023],
                    [0, -2.559999999999974],
                    [-1.81899999999996, -1.8100000000000023]
                  ]
                }
              }
            },
            {
              "ty": "st",
              "o": { "a": 0, "k": 0 },
              "w": { "a": 0, "k": 0 },
              "c": { "a": 0, "k": [0, 0, 0, 1] },
              "lc": 3,
              "lj": 1,
              "ml": 1
            },
            {
              "ty": "fl",
              "o": { "a": 0, "k": 100 },
              "r": 1,
              "c": { "a": 0, "k": [0.6314, 0.6784, 0.7176, 1] }
            },
            {
              "ty": "tr",
              "o": { "a": 0, "k": 100 },
              "a": { "a": 0, "k": [0, 0] },
              "s": { "a": 0, "k": [100, 100] },
              "p": { "a": 0, "k": [0, 0] },
              "r": { "a": 0, "k": 0 }
            }
          ]
        },
        {
          "ty": "gr",
          "nm": "Frame 2 shape group",
          "it": [
            {
              "ty": "sh",
              "ks": {
                "a": 0,
                "k": {
                  "c": true,
                  "v": [
                    [145.345, 182.154],
                    [129.271, 182.154],
                    [129.271, 135.049],
                    [126.494, 128.378],
                    [119.791, 125.615],
                    [116.025, 125.615],
                    [112.397, 126.333],
                    [109.322, 128.378],
                    [107.267, 131.439],
                    [106.546, 135.049],
                    [106.546, 182.154],
                    [61.2067, 182.154],
                    [58.545, 181.457],
                    [56.5717, 179.548],
                    [55.7972, 176.92],
                    [56.4219, 174.253],
                    [104.408, 83.8684],
                    [105.474, 80.2355],
                    [105.02, 76.4781],
                    [103.118, 73.2008],
                    [100.074, 70.9312],
                    [97.2417, 69.5999],
                    [90.2179, 69.1736],
                    [84.8341, 73.683],
                    [26.3085, 182.637],
                    [24.7905, 188.668],
                    [25.769, 193.563],
                    [28.5553, 197.713],
                    [32.7254, 200.486],
                    [37.6444, 201.46],
                    [106.546, 201.46],
                    [106.546, 231.246],
                    [107.411, 235.573],
                    [109.874, 239.241],
                    [113.56, 241.693],
                    [117.908, 242.553],
                    [117.908, 242.553],
                    [122.256, 241.693],
                    [125.943, 239.241],
                    [128.406, 235.573],
                    [129.271, 231.246],
                    [129.271, 201.46],
                    [145.345, 201.46],
                    [152.203, 198.632],
                    [155.044, 191.807],
                    [152.203, 184.981]
                  ],
                  "i": [
                    [2.5720000000000027, 0],
                    [0, 0],
                    [0, 0],
                    [1.7779999999999916, 1.7690000000000055],
                    [2.5150000000000006, 0],
                    [0, 0],
                    [1.1499999999999915, -0.47400000000000375],
                    [0.8799999999999955, -0.8759999999999906],
                    [0.47700000000000387, -1.1449999999999818],
                    [0, -1.2390000000000043],
                    [0, 0],
                    [0, 0],
                    [0.8121000000000009, 0.45699999999999363],
                    [0.4814000000000007, 0.7949999999999875],
                    [0.026300000000006207, 0.9280000000000257],
                    [-0.4357000000000042, 0.8200000000000216],
                    [0, 0],
                    [-0.10500000000000398, 1.2702000000000027],
                    [0.40500000000000114, 1.2091000000000065],
                    [0.8500000000000085, 0.953400000000002],
                    [1.1580000000000013, 0.5441999999999894],
                    [0, 0],
                    [2.3095, -0.7599999999999909],
                    [1.146799999999999, -2.134900000000002],
                    [0, 0],
                    [0, -2.1040000000000134],
                    [-0.6459999999999972, -1.5519999999999925],
                    [-1.1936, -1.1879999999999882],
                    [-1.5594999999999999, -0.6430000000000007],
                    [-1.6879999999999953, 0],
                    [0, 0],
                    [0, 0],
                    [-0.570999999999998, -1.372000000000014],
                    [-1.0549999999999926, -1.0500000000000114],
                    [-1.3790000000000049, -0.5690000000000168],
                    [-1.4920000000000044, 0],
                    [0, 0],
                    [-1.3780000000000001, 0.5679999999999836],
                    [-1.0549999999999926, 1.0509999999999877],
                    [-0.5710000000000122, 1.3719999999999857],
                    [0, 1.4849999999999852],
                    [0, 0],
                    [0, 0],
                    [-1.8190000000000168, 1.811000000000007],
                    [0, 2.5600000000000023],
                    [1.8189999999999884, 1.8100000000000023]
                  ],
                  "o": [
                    [0, 0],
                    [0, 0],
                    [0, -2.5020000000000095],
                    [-1.777000000000001, -1.7689999999999912],
                    [0, 0],
                    [-1.2450000000000045, 0],
                    [-1.1500000000000057, 0.47400000000000375],
                    [-0.8800000000000097, 0.8760000000000048],
                    [-0.4759999999999991, 1.1440000000000055],
                    [0, 0],
                    [0, 0],
                    [-0.9328000000000003, 0],
                    [-0.8121000000000009, -0.45599999999998886],
                    [-0.4814000000000007, -0.7950000000000159],
                    [-0.026199999999995782, -0.9279999999999973],
                    [0, 0],
                    [0.597999999999999, -1.126899999999992],
                    [0.10499999999998977, -1.2700999999999993],
                    [-0.40500000000000114, -1.2090999999999923],
                    [-0.8499999999999943, -0.9532999999999987],
                    [0, 0],
                    [-2.1995999999999896, -1.033600000000007],
                    [-2.3095, 0.7600000000000051],
                    [0, 0],
                    [-0.9965999999999973, 1.8559999999999945],
                    [0, 1.6800000000000068],
                    [0.645900000000001, 1.552000000000021],
                    [1.1936, 1.1880000000000166],
                    [1.5594999999999999, 0.6430000000000007],
                    [0, 0],
                    [0, 0],
                    [0, 1.4849999999999852],
                    [0.570999999999998, 1.3719999999999857],
                    [1.0550000000000068, 1.0509999999999877],
                    [1.3780000000000001, 0.5679999999999836],
                    [0, 0],
                    [1.4920000000000044, 0],
                    [1.3790000000000049, -0.5690000000000168],
                    [1.0550000000000068, -1.0500000000000114],
                    [0.570999999999998, -1.372000000000014],
                    [0, 0],
                    [0, 0],
                    [2.5720000000000027, 0],
                    [1.8189999999999884, -1.8100000000000023],
                    [0, -2.559999999999974],
                    [-1.8190000000000168, -1.8100000000000023]
                  ]
                }
              }
            },
            {
              "ty": "st",
              "o": { "a": 0, "k": 0 },
              "w": { "a": 0, "k": 0 },
              "c": { "a": 0, "k": [0, 0, 0, 1] },
              "lc": 3,
              "lj": 1,
              "ml": 1
            },
            {
              "ty": "fl",
              "o": { "a": 0, "k": 100 },
              "r": 1,
              "c": { "a": 0, "k": [0.6314, 0.6784, 0.7176, 1] }
            },
            {
              "ty": "tr",
              "o": { "a": 0, "k": 100 },
              "a": { "a": 0, "k": [0, 0] },
              "s": { "a": 0, "k": [100, 100] },
              "p": { "a": 0, "k": [0, 0] },
              "r": { "a": 0, "k": 0 }
            }
          ]
        },
        {
          "ty": "gr",
          "nm": "Frame 2 shape group",
          "it": [
            {
              "ty": "sh",
              "ks": {
                "a": 0,
                "k": {
                  "c": true,
                  "v": [
                    [244.559, 250],
                    [483.173, 234.28],
                    [244.559, 218.559],
                    [5.94531, 234.28]
                  ],
                  "i": [
                    [-131.78300000000002, 0],
                    [0, 8.681999999999988],
                    [131.783, 0],
                    [0, -8.682999999999993]
                  ],
                  "o": [
                    [131.783, 0],
                    [0, -8.682999999999993],
                    [-131.78300000000002, 0],
                    [0, 8.681999999999988]
                  ]
                }
              }
            },
            {
              "ty": "st",
              "o": { "a": 0, "k": 0 },
              "w": { "a": 0, "k": 0 },
              "c": { "a": 0, "k": [0, 0, 0, 1] },
              "lc": 3,
              "lj": 1,
              "ml": 1
            },
            {
              "ty": "fl",
              "o": { "a": 0, "k": 100 },
              "r": 1,
              "c": { "a": 0, "k": [0.851, 0.8784, 0.902, 1] }
            },
            {
              "ty": "tr",
              "o": { "a": 0, "k": 100 },
              "a": { "a": 0, "k": [0, 0] },
              "s": { "a": 0, "k": [100, 100] },
              "p": { "a": 0, "k": [0, 0] },
              "r": { "a": 0, "k": 0 }
            }
          ]
        },
        {
          "ty": "gr",
          "nm": "Frame 2 shape group",
          "it": [
            {
              "ty": "rc",
              "s": { "a": 0, "k": [500, 250] },
              "r": { "a": 0, "k": 0 },
              "p": { "a": 0, "k": [250, 125] }
            },
            {
              "ty": "st",
              "o": { "a": 0, "k": 0 },
              "w": { "a": 0, "k": 0 },
              "c": { "a": 0, "k": [0, 0, 0, 1] },
              "lc": 3,
              "lj": 1,
              "ml": 1
            },
            {
              "ty": "fl",
              "o": { "a": 0, "k": 100 },
              "r": 1,
              "c": { "a": 0, "k": [1, 1, 1, 1] }
            },
            {
              "ty": "tr",
              "o": { "a": 0, "k": 100 },
              "a": { "a": 0, "k": [0, 0] },
              "s": { "a": 0, "k": [100, 100] },
              "p": { "a": 0, "k": [0, 0] },
              "r": { "a": 0, "k": 0 }
            }
          ]
        }
      ],
      "op": 367
    }
  ],
  "op": 367,
  "w": 502,
  "h": 253
}
